
\data\
ngram 1=242
ngram 2=599

\1-grams:
-1.151676	</s>
-99	<s>	-0.0778227
-2.850646	<unk>
-2.151676	ㄅ	-0.08804264
-2.248586	ㄆ	-0.08300729
-1.947556	ㄇ	-0.05680438
-2.072495	ㄈ	-0.05286316
-1.403488	ㄉ	0.02133577
-1.736703	ㄊ	-0.1654423
-2.549616	ㄋ	-0.08866799
-1.736703	ㄌ	-0.05888509
-1.809254	ㄍ	-0.05303513
-2.248586	ㄎ	-0.09240119
-1.947556	ㄏ	-0.07662988
-1.646526	ㄐ	-0.05336031
-2.005548	ㄑ	-0.1019284
-1.736703	ㄒ	-0.08644777
-1.571893	ㄓ	-0.05885042
-1.674555	ㄔ	-0.06884699
-1.620197	ㄕ	-0.08798823
-1.809254	ㄖ	-0.05738141
-2.005548	ㄗ	-0.09739366
-2.850646	ㄙ	-0.09671644
-1.452706	ㄧ	-0.1404458
-1.809254	ㄨ	-0.05321215
-1.896404	ㄩ	-0.03761205
-2.850646	一	-0.07983029
-2.850646	了	-0.0655686
-2.248586	人	-0.0905386
-2.850646	入	-0.09671644
-2.850646	力	-0.0655686
-2.850646	十	-0.09671644
-2.549616	下	-0.06093077
-2.248586	上	-0.07385644
-2.850646	也	-0.09548788
-2.850646	口	-0.09671644
-2.373525	土	-0.0836399
-2.151676	大	-0.05029712
-2.850646	工	-0.09302029
-2.850646	己	-0.09548788
-2.850646	已	-0.0961026
-2.151676	不	-0.1001945
-2.549616	中	-0.06093077
-2.850646	仍	-0.0961026
-2.850646	分	-0.0924012
-2.072495	化	-0.02411
-2.549616	升	-0.06159636
-2.850646	及	-0.0948723
-2.850646	太	-0.07983029
-2.850646	少	-0.0655686
-2.850646	心	-0.0948723
-2.549616	比	-0.08866799
-2.248586	片	-0.07469824
-2.549616	世	-0.07791287
-2.850646	主	-0.08929242
-2.549616	以	-0.08490241
-2.850646	他	-0.09671644
-2.151676	加	-0.1499356
-2.549616	包	-0.1265104
-2.850646	可	-0.09671644
-2.850646	只	-0.08929242
-2.072495	台	-0.0692501
-2.248586	外	-0.07855295
-2.151676	市	-0.3836517
-2.549616	平	-0.08553227
-2.248586	本	-0.09424342
-2.850646	未	-0.0961026
-2.549616	正	-0.08110388
-2.850646	生	-0.09671644
-2.549616	由	-0.08804265
-2.850646	目	-0.0655686
-2.549616	全	-0.08804265
-2.850646	再	-0.09671644
-2.549616	向	-0.07080901
-2.850646	合	-0.09548788
-2.005548	在	-0.09681898
-1.947556	多	-0.04779236
-2.850646	如	-0.08741641
-2.850646	安	-0.09671644
-2.850646	年	-0.0655686
-2.850646	式	-0.09425584
-2.850646	成	-0.09053861
-2.850646	收	-0.0936385
-2.549616	有	-0.09116036
-2.850646	江	-0.09671644
-2.549616	自	-0.08678927
-2.850646	至	-0.09178122
-2.850646	行	-0.09671644
-2.850646	住	-0.09671644
-2.850646	何	-0.08553227
-2.072495	但	-0.08110389
-2.850646	作	-0.0924012
-2.850646	別	-0.09671644
-2.850646	否	-0.0924012
-2.850646	吳	-0.09671644
-2.850646	局	-0.07983029
-2.850646	抓	-0.09671644
-2.850646	改	-0.09302029
-2.549616	更	-0.115802
-2.850646	見	-0.07983029
-2.549616	並	-0.08237375
-2.850646	供	-0.0961026
-2.248586	來	-0.08427161
-2.850646	兩	-0.0961026
-2.850646	其	-0.08929242
-2.850646	刺	-0.08741641
-2.850646	到	-0.07983029
-2.850646	制	-0.0655686
-2.850646	味	-0.0655686
-2.850646	命	-0.09671644
-2.850646	宗	-0.09671644
-2.850646	定	-0.09053861
-2.549616	岸	-0.07534307
-2.850646	怕	-0.0655686
-2.850646	怡	-0.0961026
-2.850646	性	-0.0936385
-2.850646	拍	-0.09178122
-2.850646	抱	-0.08804265
-2.850646	放	-0.0655686
-2.549616	於	-0.08678927
-2.373525	明	-0.1116898
-2.248586	爭	-0.09288745
-2.850646	版	-0.08678927
-2.151676	的	-0.07791287
-2.850646	肯	-0.07983029
-2.850646	金	-0.0655686
-2.549616	長	-0.0924012
-2.850646	前	-0.08929242
-2.850646	卻	-0.09671644
-2.373525	品	-0.07791286
-2.549616	型	-0.08866799
-2.850646	客	-0.09425584
-2.850646	度	-0.09671644
-2.850646	建	-0.08929242
-2.549616	待	-0.06026417
-2.549616	後	-0.06226093
-2.850646	持	-0.08741641
-2.850646	政	-0.09671644
-2.850646	映	-0.0961026
-2.373525	是	-0.07405244
-2.549616	為	-0.07983029
-2.373525	界	-0.07727183
-2.850646	胡	-0.09053861
-2.549616	面	-0.07662988
-2.850646	娛	-0.09178122
-2.850646	消	-0.0936385
-2.850646	海	-0.08929242
-2.850646	能	-0.07983029
-2.850646	財	-0.08804265
-2.850646	院	-0.0961026
-2.850646	除	-0.09053861
-2.850646	高	-0.09671644
-2.850646	務	-0.09548788
-2.850646	動	-0.08929242
-2.248586	商	-0.1031458
-2.549616	唱	-0.1308441
-2.549616	圈	-0.09053861
-2.373525	國	-0.1185194
-2.151676	將	-0.04464281
-2.850646	強	-0.09548788
-2.850646	得	-0.09671644
-2.850646	教	-0.09178122
-2.850646	望	-0.09302029
-2.549616	清	-0.09425584
-2.850646	猖	-0.08741641
-2.549616	球	-0.1296103
-2.850646	現	-0.09302029
-2.549616	產	-0.117711
-2.549616	眾	-0.08553227
-2.850646	組	-0.08553227
-2.850646	許	-0.0924012
-2.850646	這	-0.0924012
-2.850646	造	-0.08929242
-2.373525	都	-0.06093076
-2.248586	場	-0.05959652
-2.549616	媒	-0.1252642
-2.850646	就	-0.08741641
-2.850646	提	-0.08678927
-2.850646	曾	-0.09548788
-2.549616	期	-0.07791287
-2.549616	盜	-0.1302276
-2.850646	策	-0.08929242
-2.151676	視	-0.08679121
-2.850646	買	-0.0961026
-2.850646	貿	-0.08173928
-2.549616	進	-0.08046755
-2.549616	開	-0.1296103
-2.850646	須	-0.0961026
-2.850646	黃	-0.09671644
-2.850646	傳	-0.0961026
-2.850646	感	-0.08929242
-2.549616	新	-0.08991596
-2.373525	會	-0.07340568
-2.005548	業	-0.013096
-2.850646	極	-0.08553227
-2.850646	準	-0.09302029
-2.850646	節	-0.0924012
-2.850646	跨	-0.09053861
-1.896404	電	-0.4437704
-2.850646	像	-0.0936385
-2.850646	實	-0.09671644
-2.850646	察	-0.0655686
-2.850646	對	-0.0948723
-2.850646	態	-0.09425584
-2.850646	慣	-0.0655686
-2.373525	演	-1.1555
-2.248586	綜	-0.5787586
-2.850646	維	-0.0961026
-2.373525	與	-0.0842716
-2.373525	認	-1.164299
-2.549616	際	-0.08866799
-1.896404	影	-0.2535667
-2.850646	慧	-0.09671644
-2.850646	憂	-0.08929242
-2.549616	樂	-0.0948723
-2.850646	潤	-0.0655686
-2.850646	衝	-0.08741641
-2.549616	閱	-0.1320743
-2.549616	導	-0.0961026
-2.850646	憲	-0.09671644
-2.549616	擇	-0.06424855
-2.549616	機	-0.06026417
-2.850646	積	-0.08741641
-2.850646	優	-0.08553227
-2.549616	應	-0.09178122
-2.850646	懂	-0.0655686
-2.850646	濟	-0.08929242
-2.850646	聯	-0.0924012
-2.850646	臨	-0.0948723
-2.850646	舉	-0.0961026
-2.850646	艱	-0.0655686
-2.850646	龐	-0.07983029
-2.549616	藝	-0.09302029
-2.072495	競	-0.1539566
-2.850646	續	-0.09053861
-2.850646	護	-0.0961026
-2.373525	響	-0.08590806
-2.549616	權	-0.06226093
-2.549616	聽	-0.07662988
-2.373525	讓	-0.08866797
-2.151676	灣	-0.06292447
-2.850646	觀	-0.08553227

\2-grams:
-1.252171	<s> ㄉ
-1.975837	<s> ㄊ
-2.396266	<s> ㄑ
-2.396266	<s> ㄒ
-1.975837	<s> ㄕ
-1.252171	<s> ㄖ
-1.553219	<s> ㄧ
-2.396266	<s> ㄨ
-2.396266	<s> ㄩ
-2.396266	<s> 不
-2.396266	<s> 加
-2.396266	<s> 只
-2.396266	<s> 台
-2.396266	<s> 由
-1.975837	<s> 在
-1.975837	<s> 多
-0.9208187	<s> 但
-1.975837	<s> 並
-2.396266	<s> 刺
-2.396266	<s> 到
-2.396266	<s> 抱
-2.396266	<s> 明
-2.396266	<s> 海
-2.396266	<s> 唱
-2.396266	<s> 曾
-2.396266	<s> 期
-2.396266	<s> 電
-2.396266	<s> 像
-1.975837	<s> 演
-2.396266	<s> 綜
-2.396266	<s> 閱
-2.396266	<s> 讓
-1.396266	ㄅ ㄩ
-1.396266	ㄅ 土
-1.396266	ㄅ 未
-1.396266	ㄅ 猖
-1.396266	ㄅ 護
-1.299356	ㄆ ㄅ
-1.299356	ㄆ ㄒ
-1.299356	ㄆ 界
-1.299356	ㄆ 盜
-1.600386	ㄇ </s>
-1.179958	ㄇ ㄎ
-1.600386	ㄇ ㄐ
-1.600386	ㄇ 向
-1.600386	ㄇ 眾
-1.600386	ㄇ 準
-1.600386	ㄇ 臨
-1.475448	ㄈ </s>
-1.475448	ㄈ ㄒ
-1.475448	ㄈ 下
-1.475448	ㄈ 映
-1.475448	ㄈ 務
-1.475448	ㄈ 導
-2.144454	ㄉ </s>
-2.144454	ㄉ ㄉ
-2.144454	ㄉ ㄓ
-2.144454	ㄉ ㄖ
-2.144454	ㄉ ㄧ
-1.724025	ㄉ 台
-2.144454	ㄉ 市
-2.144454	ㄉ 有
-2.144454	ㄉ 自
-1.724025	ㄉ 來
-2.144454	ㄉ 岸
-2.144454	ㄉ 的
-2.144454	ㄉ 是
-2.144454	ㄉ 能
-2.144454	ㄉ 動
-2.144454	ㄉ 國
-2.144454	ㄉ 眾
-2.144454	ㄉ 策
-2.144454	ㄉ 視
-2.144454	ㄉ 綜
-1.301407	ㄉ 影
-2.144454	ㄉ 懂
-2.144454	ㄉ 舉
-1.81124	ㄊ ㄐ
-1.81124	ㄊ ㄔ
-1.390811	ㄊ 升
-1.81124	ㄊ 多
-1.81124	ㄊ 供
-1.81124	ㄊ 前
-1.81124	ㄊ 將
-1.81124	ㄊ 都
-1.81124	ㄊ 電
-0.6671448	ㄊ 灣
-0.9983264	ㄋ ㄒ
-0.9983264	ㄋ 度
-1.390811	ㄌ </s>
-1.81124	ㄌ 及
-1.81124	ㄌ 台
-1.81124	ㄌ 合
-1.81124	ㄌ 性
-1.81124	ㄌ 清
-1.81124	ㄌ 新
-1.81124	ㄌ 節
-1.81124	ㄌ 實
-1.81124	ㄌ 潤
-1.81124	ㄌ 聯
-1.81124	ㄌ 龐
-1.31826	ㄍ ㄉ
-1.738689	ㄍ ㄊ
-1.738689	ㄍ ㄏ
-1.738689	ㄍ ㄓ
-1.738689	ㄍ 片
-1.738689	ㄍ 包
-1.738689	ㄍ 吳
-1.738689	ㄍ 胡
-1.738689	ㄍ 買
-1.738689	ㄍ 察
-1.299356	ㄎ 上
-1.299356	ㄎ 命
-1.299356	ㄎ 放
-1.299356	ㄎ 待
-1.600386	ㄏ ㄐ
-1.600386	ㄏ ㄗ
-1.600386	ㄏ 也
-1.600386	ㄏ 作
-1.600386	ㄏ 怕
-1.600386	ㄏ 將
-1.600386	ㄏ 對
-1.600386	ㄏ 續
-1.901416	ㄐ ㄊ
-1.901416	ㄐ ㄓ
-1.901416	ㄐ ㄕ
-1.901416	ㄐ 入
-1.901416	ㄐ 外
-1.901416	ㄐ 本
-1.901416	ㄐ 目
-1.901416	ㄐ 在
-1.480987	ㄐ 爭
-1.480987	ㄐ 的
-1.901416	ㄐ 是
-1.901416	ㄐ 強
-1.901416	ㄐ 極
-1.901416	ㄐ 濟
-1.542395	ㄑ ㄒ
-1.542395	ㄑ 中
-1.121966	ㄑ 化
-1.542395	ㄑ 面
-1.121966	ㄑ 球
-1.81124	ㄒ 不
-1.81124	ㄒ 仍
-1.81124	ㄒ 有
-1.81124	ㄒ 兩
-1.81124	ㄒ 制
-1.81124	ㄒ 後
-1.81124	ㄒ 將
-1.81124	ㄒ 望
-1.81124	ㄒ 慣
-1.81124	ㄒ 與
-1.81124	ㄒ 導
-1.390811	ㄒ 擇
-1.133002	ㄓ </s>
-1.97605	ㄓ ㄒ
-1.97605	ㄓ 力
-1.97605	ㄓ 口
-1.97605	ㄓ 片
-1.97605	ㄓ 正
-1.97605	ㄓ 式
-1.97605	ㄓ 收
-1.97605	ㄓ 的
-1.555621	ㄓ 型
-1.97605	ㄓ 持
-1.97605	ㄓ 將
-1.97605	ㄓ 造
-1.97605	ㄓ 都
-1.97605	ㄓ 慧
-1.873388	ㄔ </s>
-1.873388	ㄔ 下
-1.873388	ㄔ 心
-1.873388	ㄔ 片
-1.873388	ㄔ 平
-1.873388	ㄔ 生
-1.873388	ㄔ 定
-1.873388	ㄔ 長
-1.873388	ㄔ 商
-1.873388	ㄔ 開
-1.03034	ㄔ 業
-1.873388	ㄔ 權
-1.927745	ㄕ ㄊ
-1.927745	ㄕ ㄗ
-1.927745	ㄕ 台
-1.927745	ㄕ 外
-1.927745	ㄕ 否
-1.507316	ㄕ 品
-1.927745	ㄕ 界
-1.927745	ㄕ 除
-1.084697	ㄕ 場
-1.927745	ㄕ 媒
-1.927745	ㄕ 就
-1.927745	ㄕ 態
-1.927745	ㄕ 競
-1.31826	ㄖ </s>
-1.738689	ㄖ ㄕ
-1.738689	ㄖ 上
-1.31826	ㄖ 世
-1.738689	ㄖ 如
-1.738689	ㄖ 何
-1.738689	ㄖ 為
-1.738689	ㄖ 須
-1.738689	ㄖ 會
-1.542395	ㄗ 己
-1.542395	ㄗ 少
-1.542395	ㄗ 以
-1.542395	ㄗ 由
-1.542395	ㄗ 多
-1.121966	ㄗ 藝
-0.6972964	ㄙ 維
-2.095237	ㄧ </s>
-2.095237	ㄧ ㄐ
-2.095237	ㄧ ㄨ
-1.674807	ㄧ ㄩ
-0.9511414	ㄧ 人
-2.095237	ㄧ 成
-2.095237	ㄧ 抓
-2.095237	ㄧ 更
-1.674807	ㄧ 於
-2.095237	ㄧ 為
-2.095237	ㄧ 界
-2.095237	ㄧ 娛
-2.095237	ㄧ 唱
-2.095237	ㄧ 組
-2.095237	ㄧ 許
-2.095237	ㄧ 機
-1.674807	ㄧ 應
-0.9511414	ㄧ 響
-1.738689	ㄨ </s>
-1.738689	ㄨ ㄑ
-1.31826	ㄨ 化
-1.738689	ㄨ 加
-1.738689	ㄨ 本
-1.738689	ㄨ 在
-1.738689	ㄨ 局
-1.31826	ㄨ 來
-1.738689	ㄨ 與
-1.651539	ㄩ </s>
-1.651539	ㄩ ㄔ
-1.651539	ㄩ ㄕ
-1.651539	ㄩ ㄨ
-1.651539	ㄩ 本
-1.651539	ㄩ 期
-1.23111	ㄩ 樂
-1.651539	ㄩ 優
-0.6972964	一 ㄉ
-0.6972964	了 </s>
-1.299356	人 可
-1.299356	人 多
-1.299356	人 感
-1.299356	人 憂
-0.6972964	入 積
-0.6972964	力 </s>
-0.6972964	十 分
-0.9983264	下 </s>
-0.9983264	下 ㄗ
-0.8789275	上 </s>
-1.299356	上 大
-1.299356	上 影
-0.6972964	也 讓
-0.6972964	口 味
-1.174418	土 電
-1.174418	土 綜
-1.174418	土 影
-0.9758375	大 </s>
-1.396266	大 ㄌ
-1.396266	大 ㄍ
-1.396266	大 ㄓ
-0.6972964	工 業
-0.6972964	己 明
-0.6972964	已 面
-1.396266	不 ㄍ
-0.9758375	不 大
-1.396266	不 至
-1.396266	不 見
-0.9983264	中 </s>
-0.9983264	中 在
-0.6972964	仍 待
-0.6972964	分 ㄏ
-1.475448	化 </s>
-1.475448	化 ㄉ
-1.475448	化 ㄕ
-1.475448	化 市
-1.475448	化 商
-1.475448	化 競
-0.9983264	升 </s>
-0.9983264	升 競
-0.6972964	及 外
-0.6972964	太 ㄉ
-0.6972964	少 </s>
-0.6972964	心 ㄎ
-0.9983264	比 ㄌ
-0.9983264	比 現
-1.299356	片 ㄈ
-1.299356	片 ㄓ
-1.299356	片 商
-1.299356	片 業
-0.9983264	世 ㄉ
-0.9983264	世 會
-0.6972964	主 ㄒ
-0.9983264	以 ㄓ
-0.9983264	以 跨
-0.6972964	他 十
-1.396266	加 ㄕ
-0.5532185	加 ㄖ
-0.5778975	包 ㄍ
-0.6972964	可 建
-0.6972964	只 ㄒ
-1.475448	台 ㄉ
-1.475448	台 ㄕ
-1.475448	台 ㄨ
-1.475448	台 拍
-1.055019	台 灣
-1.299356	外 ㄌ
-1.299356	外 ㄍ
-1.299356	外 片
-1.299356	外 媒
-0.2252154	市 ㄔ
-0.9983264	平 ㄎ
-0.9983264	平 ㄔ
-1.299356	本 ㄉ
-0.8789275	本 土
-1.299356	本 盜
-0.6972964	未 全
-0.9983264	正 ㄧ
-0.9983264	正 版
-0.6972964	生 太
-0.9983264	由 ㄩ
-0.9983264	由 競
-0.6972964	目 </s>
-0.9983264	全 ㄇ
-0.9983264	全 ㄑ
-0.6972964	再 這
-0.9983264	向 ㄕ
-0.9983264	向 ㄧ
-0.6972964	合 國
-1.121966	在 ㄕ
-1.542395	在 包
-1.542395	在 明
-1.542395	在 進
-1.121966	在 電
-1.600386	多 </s>
-1.600386	多 ㄇ
-1.600386	多 ㄖ
-1.600386	多 ㄗ
-1.600386	多 ㄩ
-1.179958	多 認
-1.600386	多 艱
-0.6972964	如 ㄐ
-0.6972964	安 高
-0.6972964	年 </s>
-0.6972964	式 加
-0.6972964	成 ㄍ
-0.6972964	收 ㄈ
-0.9983264	有 一
-0.9983264	有 電
-0.6972964	江 傳
-0.9983264	自 ㄐ
-0.9983264	自 主
-0.6972964	至 ㄩ
-0.6972964	行 政
-0.6972964	住 觀
-0.6972964	何 ㄓ
-1.475448	但 ㄇ
-1.475448	但 加
-1.475448	但 行
-1.475448	但 卻
-1.475448	但 業
-1.475448	但 綜
-0.6972964	作 ㄇ
-0.6972964	別 再
-0.6972964	否 ㄏ
-0.6972964	吳 宗
-0.6972964	局 ㄉ
-0.6972964	抓 得
-0.6972964	改 ㄗ
-0.5778975	更 ㄉ
-0.6972964	見 ㄉ
-0.9983264	並 ㄌ
-0.9983264	並 ㄨ
-0.6972964	供 閱
-1.299356	來 多
-1.299356	來 客
-1.299356	來 演
-1.299356	來 影
-0.6972964	兩 岸
-0.6972964	其 ㄊ
-0.6972964	刺 ㄐ
-0.6972964	到 ㄉ
-0.6972964	制 </s>
-0.6972964	味 </s>
-0.6972964	命 了
-0.6972964	宗 憲
-0.6972964	定 ㄨ
-0.9983264	岸 ㄐ
-0.9983264	岸 ㄓ
-0.6972964	怕 </s>
-0.6972964	怡 平
-0.6972964	性 競
-0.6972964	拍 電
-0.6972964	抱 ㄔ
-0.6972964	放 </s>
-0.9983264	於 ㄐ
-0.9983264	於 已
-1.174418	明 ㄊ
-0.7539887	明 ㄋ
-0.8789275	爭 </s>
-0.8789275	爭 ㄌ
-0.6972964	版 ㄕ
-1.396266	的 ㄈ
-1.396266	的 ㄔ
-1.396266	的 市
-1.396266	的 消
-1.396266	的 商
-0.6972964	肯 ㄉ
-0.6972964	金 </s>
-0.9983264	長 ㄑ
-0.9983264	長 江
-0.6972964	前 ㄊ
-0.6972964	卻 肯
-1.174418	品 ㄓ
-1.174418	品 在
-1.174418	品 的
-0.9983264	型 ㄊ
-0.9983264	型 提
-0.6972964	客 不
-0.6972964	度 別
-0.6972964	建 ㄌ
-0.9983264	待 </s>
-0.9983264	待 ㄏ
-0.9983264	後 </s>
-0.9983264	後 加
-0.6972964	持 ㄐ
-0.6972964	政 院
-0.6972964	映 比
-1.174418	是 ㄧ
-1.174418	是 ㄨ
-1.174418	是 年
-0.9983264	為 ㄧ
-0.9983264	為 是
-1.174418	界 ㄉ
-1.174418	界 都
-1.174418	界 貿
-0.6972964	胡 ㄍ
-0.9983264	面 ㄉ
-0.9983264	面 市
-0.6972964	娛 ㄩ
-0.6972964	消 ㄈ
-0.6972964	海 ㄒ
-0.6972964	能 ㄉ
-0.6972964	財 ㄔ
-0.6972964	院 新
-0.6972964	除 ㄍ
-0.6972964	高 怡
-0.6972964	務 品
-0.6972964	動 ㄌ
-0.8789275	商 ㄆ
-1.299356	商 ㄌ
-1.299356	商 機
-0.5778975	唱 ㄆ
-0.9983264	圈 中
-0.9983264	圈 影
-1.174418	國 後
-0.7539887	國 際
-1.396266	將 ㄇ
-1.396266	將 ㄉ
-1.396266	將 ㄓ
-1.396266	將 ㄧ
-1.396266	將 衝
-0.6972964	強 與
-0.6972964	得 住
-0.6972964	教 ㄩ
-0.6972964	望 ㄗ
-0.9983264	清 自
-0.9983264	清 認
-0.6972964	猖 ㄐ
-0.5778975	球 化
-0.6972964	現 ㄗ
-0.5778975	產 ㄧ
-0.9983264	眾 ㄖ
-0.9983264	眾 多
-0.6972964	組 ㄓ
-0.6972964	許 多
-0.6972964	這 ㄇ
-0.6972964	造 ㄌ
-1.174418	都 ㄉ
-1.174418	都 ㄌ
-1.174418	都 ㄐ
-1.299356	場 </s>
-1.299356	場 上
-1.299356	場 國
-1.299356	場 開
-0.5778975	媒 ㄊ
-0.6972964	就 ㄐ
-0.6972964	提 ㄕ
-0.6972964	曾 讓
-0.9983264	期 ㄉ
-0.9983264	期 會
-0.5778975	盜 ㄅ
-0.6972964	策 ㄌ
-1.396266	視 ㄊ
-0.9758375	視 ㄔ
-1.396266	視 產
-1.396266	視 電
-0.6972964	買 正
-0.6972964	貿 ㄧ
-0.9983264	進 ㄐ
-0.9983264	進 ㄖ
-0.5778975	開 ㄈ
-0.6972964	須 長
-0.6972964	黃 安
-0.6972964	傳 清
-0.6972964	感 ㄊ
-0.9983264	新 ㄙ
-0.9983264	新 ㄨ
-1.174418	會 ㄉ
-1.174418	會 ㄏ
-1.174418	會 比
-1.542395	業 </s>
-1.542395	業 ㄏ
-1.542395	業 ㄓ
-1.542395	業 ㄕ
-1.542395	業 ㄧ
-1.542395	業 上
-1.542395	業 向
-0.6972964	極 ㄓ
-0.6972964	準 ㄑ
-0.6972964	節 ㄇ
-0.6972964	跨 ㄍ
-0.507444	電 ㄕ
-0.4804879	電 ㄧ
-1.651539	電 視
-0.6972964	像 台
-0.6972964	實 改
-0.6972964	察 </s>
-0.6972964	對 本
-0.6972964	態 不
-0.6972964	慣 </s>
-0.03032269	演 ㄧ
-1.299356	綜 ㄍ
-0.1552614	綜 ㄧ
-0.6972964	維 以
-1.174418	與 ㄑ
-1.174418	與 ㄒ
-1.174418	與 其
-0.03032269	認 ㄨ
-0.9983264	際 ㄏ
-0.9983264	際 競
-1.23111	影 ㄒ
-1.23111	影 ㄔ
-1.651539	影 工
-1.651539	影 市
-0.507444	影 視
-0.6972964	慧 財
-0.6972964	憂 ㄒ
-0.9983264	樂 圈
-0.9983264	樂 產
-0.6972964	潤 </s>
-0.6972964	衝 ㄐ
-0.5778975	閱 聽
-0.9983264	導 金
-0.9983264	導 教
-0.6972964	憲 黃
-0.9983264	擇 </s>
-0.9983264	擇 權
-0.9983264	機 </s>
-0.9983264	機 ㄏ
-0.6972964	積 ㄐ
-0.6972964	優 ㄓ
-0.9983264	應 ㄑ
-0.9983264	應 全
-0.6972964	懂 </s>
-0.6972964	濟 ㄌ
-0.6972964	聯 ㄇ
-0.6972964	臨 外
-0.6972964	舉 進
-0.6972964	艱 </s>
-0.6972964	龐 ㄉ
-0.9983264	藝 大
-0.9983264	藝 圈
-0.6323998	競 ㄓ
-1.055019	競 爭
-0.6972964	續 ㄍ
-0.6972964	護 更
-0.7539887	響 </s>
-1.174418	響 不
-0.9983264	權 </s>
-0.9983264	權 ㄅ
-0.9983264	聽 ㄉ
-0.9983264	聽 大
-1.174418	讓 人
-1.174418	讓 他
-1.174418	讓 電
-1.396266	灣 ㄅ
-1.396266	灣 ㄉ
-1.396266	灣 在
-1.396266	灣 將
-1.396266	灣 影
-0.6972964	觀 ㄓ

\end\
